digraph Tree {
node [shape=box] ;
0 [label="X[10] <= 0.5\nentropy = 1.071\nsamples = 891\nvalue = [535, 341, 15]"] ;
1 [label="X[9] <= 0.5\nentropy = 1.053\nsamples = 329\nvalue = [81, 233, 15]"] ;
0 -> 1 [labeldistance=2.5, labelangle=45, headlabel="True"] ;
2 [label="entropy = 0.0\nsamples = 15\nvalue = [0, 0, 15]"] ;
1 -> 2 ;
3 [label="X[7] <= 2.5\nentropy = 0.824\nsamples = 314\nvalue = [81, 233, 0]"] ;
1 -> 3 ;
4 [label="X[5] <= 28.856\nentropy = 0.299\nsamples = 170\nvalue = [9, 161, 0]"] ;
3 -> 4 ;
5 [label="X[5] <= 28.231\nentropy = 0.469\nsamples = 70\nvalue = [7, 63, 0]"] ;
4 -> 5 ;
6 [label="X[0] <= 23.5\nentropy = 0.426\nsamples = 69\nvalue = [6, 63, 0]"] ;
5 -> 6 ;
7 [label="entropy = 0.0\nsamples = 15\nvalue = [0, 15, 0]"] ;
6 -> 7 ;
8 [label="X[0] <= 27.5\nentropy = 0.503\nsamples = 54\nvalue = [6, 48, 0]"] ;
6 -> 8 ;
9 [label="X[0] <= 25.5\nentropy = 0.845\nsamples = 11\nvalue = [3, 8, 0]"] ;
8 -> 9 ;
10 [label="X[5] <= 13.75\nentropy = 0.592\nsamples = 7\nvalue = [1, 6, 0]"] ;
9 -> 10 ;
11 [label="entropy = 1.0\nsamples = 2\nvalue = [1, 1, 0]"] ;
10 -> 11 ;
12 [label="entropy = 0.0\nsamples = 5\nvalue = [0, 5, 0]"] ;
10 -> 12 ;
13 [label="X[5] <= 17.429\nentropy = 1.0\nsamples = 4\nvalue = [2, 2, 0]"] ;
9 -> 13 ;
14 [label="entropy = 0.0\nsamples = 2\nvalue = [0, 2, 0]"] ;
13 -> 14 ;
15 [label="entropy = 0.0\nsamples = 2\nvalue = [2, 0, 0]"] ;
13 -> 15 ;
16 [label="X[0] <= 37.0\nentropy = 0.365\nsamples = 43\nvalue = [3, 40, 0]"] ;
8 -> 16 ;
17 [label="entropy = 0.0\nsamples = 24\nvalue = [0, 24, 0]"] ;
16 -> 17 ;
18 [label="X[0] <= 39.0\nentropy = 0.629\nsamples = 19\nvalue = [3, 16, 0]"] ;
16 -> 18 ;
19 [label="entropy = 0.0\nsamples = 1\nvalue = [1, 0, 0]"] ;
18 -> 19 ;
20 [label="X[0] <= 56.0\nentropy = 0.503\nsamples = 18\nvalue = [2, 16, 0]"] ;
18 -> 20 ;
21 [label="X[11] <= 0.5\nentropy = 0.337\nsamples = 16\nvalue = [1, 15, 0]"] ;
20 -> 21 ;
22 [label="entropy = 0.0\nsamples = 12\nvalue = [0, 12, 0]"] ;
21 -> 22 ;
23 [label="X[6] <= 0.5\nentropy = 0.811\nsamples = 4\nvalue = [1, 3, 0]"] ;
21 -> 23 ;
24 [label="X[0] <= 43.0\nentropy = 1.0\nsamples = 2\nvalue = [1, 1, 0]"] ;
23 -> 24 ;
25 [label="entropy = 0.0\nsamples = 1\nvalue = [0, 1, 0]"] ;
24 -> 25 ;
26 [label="entropy = 0.0\nsamples = 1\nvalue = [1, 0, 0]"] ;
24 -> 26 ;
27 [label="entropy = 0.0\nsamples = 2\nvalue = [0, 2, 0]"] ;
23 -> 27 ;
28 [label="X[0] <= 57.5\nentropy = 1.0\nsamples = 2\nvalue = [1, 1, 0]"] ;
20 -> 28 ;
29 [label="entropy = 0.0\nsamples = 1\nvalue = [1, 0, 0]"] ;
28 -> 29 ;
30 [label="entropy = 0.0\nsamples = 1\nvalue = [0, 1, 0]"] ;
28 -> 30 ;
31 [label="entropy = 0.0\nsamples = 1\nvalue = [1, 0, 0]"] ;
5 -> 31 ;
32 [label="X[0] <= 2.5\nentropy = 0.141\nsamples = 100\nvalue = [2, 98, 0]"] ;
4 -> 32 ;
33 [label="entropy = 0.0\nsamples = 1\nvalue = [1, 0, 0]"] ;
32 -> 33 ;
34 [label="X[6] <= 1.5\nentropy = 0.081\nsamples = 99\nvalue = [1, 98, 0]"] ;
32 -> 34 ;
35 [label="entropy = 0.0\nsamples = 84\nvalue = [0, 84, 0]"] ;
34 -> 35 ;
36 [label="X[0] <= 24.5\nentropy = 0.353\nsamples = 15\nvalue = [1, 14, 0]"] ;
34 -> 36 ;
37 [label="entropy = 0.0\nsamples = 10\nvalue = [0, 10, 0]"] ;
36 -> 37 ;
38 [label="X[0] <= 28.0\nentropy = 0.722\nsamples = 5\nvalue = [1, 4, 0]"] ;
36 -> 38 ;
39 [label="entropy = 0.0\nsamples = 1\nvalue = [1, 0, 0]"] ;
38 -> 39 ;
40 [label="entropy = 0.0\nsamples = 4\nvalue = [0, 4, 0]"] ;
38 -> 40 ;
41 [label="X[5] <= 23.35\nentropy = 1.0\nsamples = 144\nvalue = [72, 72, 0]"] ;
3 -> 41 ;
42 [label="X[0] <= 36.5\nentropy = 0.977\nsamples = 117\nvalue = [48, 69, 0]"] ;
41 -> 42 ;
43 [label="X[4] <= 0.5\nentropy = 0.959\nsamples = 110\nvalue = [42, 68, 0]"] ;
42 -> 43 ;
44 [label="X[5] <= 15.621\nentropy = 0.86\nsamples = 53\nvalue = [15, 38, 0]"] ;
43 -> 44 ;
45 [label="X[5] <= 13.935\nentropy = 0.918\nsamples = 45\nvalue = [15, 30, 0]"] ;
44 -> 45 ;
46 [label="X[0] <= 17.0\nentropy = 0.758\nsamples = 32\nvalue = [7, 25, 0]"] ;
45 -> 46 ;
47 [label="entropy = 0.0\nsamples = 7\nvalue = [0, 7, 0]"] ;
46 -> 47 ;
48 [label="X[0] <= 18.5\nentropy = 0.855\nsamples = 25\nvalue = [7, 18, 0]"] ;
46 -> 48 ;
49 [label="entropy = 0.0\nsamples = 1\nvalue = [1, 0, 0]"] ;
48 -> 49 ;
50 [label="X[0] <= 30.1\nentropy = 0.811\nsamples = 24\nvalue = [6, 18, 0]"] ;
48 -> 50 ;
51 [label="X[5] <= 8.008\nentropy = 0.755\nsamples = 23\nvalue = [5, 18, 0]"] ;
50 -> 51 ;
52 [label="X[6] <= 1.0\nentropy = 0.684\nsamples = 22\nvalue = [4, 18, 0]"] ;
51 -> 52 ;
53 [label="X[5] <= 7.769\nentropy = 0.592\nsamples = 21\nvalue = [3, 18, 0]"] ;
52 -> 53 ;
54 [label="X[0] <= 21.5\nentropy = 0.722\nsamples = 15\nvalue = [3, 12, 0]"] ;
53 -> 54 ;
55 [label="entropy = 0.0\nsamples = 1\nvalue = [1, 0, 0]"] ;
54 -> 55 ;
56 [label="X[5] <= 7.681\nentropy = 0.592\nsamples = 14\nvalue = [2, 12, 0]"] ;
54 -> 56 ;
57 [label="X[5] <= 7.429\nentropy = 0.918\nsamples = 3\nvalue = [1, 2, 0]"] ;
56 -> 57 ;
58 [label="entropy = 0.0\nsamples = 2\nvalue = [0, 2, 0]"] ;
57 -> 58 ;
59 [label="entropy = 0.0\nsamples = 1\nvalue = [1, 0, 0]"] ;
57 -> 59 ;
60 [label="X[5] <= 7.744\nentropy = 0.439\nsamples = 11\nvalue = [1, 10, 0]"] ;
56 -> 60 ;
61 [label="entropy = 0.0\nsamples = 2\nvalue = [0, 2, 0]"] ;
60 -> 61 ;
62 [label="X[0] <= 25.85\nentropy = 0.503\nsamples = 9\nvalue = [1, 8, 0]"] ;
60 -> 62 ;
63 [label="entropy = 0.0\nsamples = 1\nvalue = [0, 1, 0]"] ;
62 -> 63 ;
64 [label="entropy = 0.544\nsamples = 8\nvalue = [1, 7, 0]"] ;
62 -> 64 ;
65 [label="entropy = 0.0\nsamples = 6\nvalue = [0, 6, 0]"] ;
53 -> 65 ;
66 [label="entropy = 0.0\nsamples = 1\nvalue = [1, 0, 0]"] ;
52 -> 66 ;
67 [label="entropy = 0.0\nsamples = 1\nvalue = [1, 0, 0]"] ;
51 -> 67 ;
68 [label="entropy = 0.0\nsamples = 1\nvalue = [1, 0, 0]"] ;
50 -> 68 ;
69 [label="X[2] <= 0.5\nentropy = 0.961\nsamples = 13\nvalue = [8, 5, 0]"] ;
45 -> 69 ;
70 [label="X[0] <= 30.85\nentropy = 0.811\nsamples = 4\nvalue = [1, 3, 0]"] ;
69 -> 70 ;
71 [label="entropy = 0.0\nsamples = 3\nvalue = [0, 3, 0]"] ;
70 -> 71 ;
72 [label="entropy = 0.0\nsamples = 1\nvalue = [1, 0, 0]"] ;
70 -> 72 ;
73 [label="X[0] <= 29.35\nentropy = 0.764\nsamples = 9\nvalue = [7, 2, 0]"] ;
69 -> 73 ;
74 [label="X[6] <= 1.5\nentropy = 0.918\nsamples = 6\nvalue = [4, 2, 0]"] ;
73 -> 74 ;
75 [label="X[5] <= 14.456\nentropy = 0.722\nsamples = 5\nvalue = [4, 1, 0]"] ;
74 -> 75 ;
76 [label="X[0] <= 14.75\nentropy = 0.918\nsamples = 3\nvalue = [2, 1, 0]"] ;
75 -> 76 ;
77 [label="entropy = 0.0\nsamples = 1\nvalue = [1, 0, 0]"] ;
76 -> 77 ;
78 [label="X[11] <= 0.5\nentropy = 1.0\nsamples = 2\nvalue = [1, 1, 0]"] ;
76 -> 78 ;
79 [label="entropy = 0.0\nsamples = 1\nvalue = [1, 0, 0]"] ;
78 -> 79 ;
80 [label="entropy = 0.0\nsamples = 1\nvalue = [0, 1, 0]"] ;
78 -> 80 ;
81 [label="entropy = 0.0\nsamples = 2\nvalue = [2, 0, 0]"] ;
75 -> 81 ;
82 [label="entropy = 0.0\nsamples = 1\nvalue = [0, 1, 0]"] ;
74 -> 82 ;
83 [label="entropy = 0.0\nsamples = 3\nvalue = [3, 0, 0]"] ;
73 -> 83 ;
84 [label="entropy = 0.0\nsamples = 8\nvalue = [0, 8, 0]"] ;
44 -> 84 ;
85 [label="X[0] <= 32.0\nentropy = 0.998\nsamples = 57\nvalue = [27, 30, 0]"] ;
43 -> 85 ;
86 [label="X[5] <= 7.763\nentropy = 1.0\nsamples = 54\nvalue = [27, 27, 0]"] ;
85 -> 86 ;
87 [label="X[0] <= 26.35\nentropy = 0.65\nsamples = 6\nvalue = [1, 5, 0]"] ;
86 -> 87 ;
88 [label="entropy = 0.0\nsamples = 5\nvalue = [0, 5, 0]"] ;
87 -> 88 ;
89 [label="entropy = 0.0\nsamples = 1\nvalue = [1, 0, 0]"] ;
87 -> 89 ;
90 [label="X[5] <= 10.825\nentropy = 0.995\nsamples = 48\nvalue = [26, 22, 0]"] ;
86 -> 90 ;
91 [label="X[5] <= 10.152\nentropy = 0.918\nsamples = 27\nvalue = [18, 9, 0]"] ;
90 -> 91 ;
92 [label="X[6] <= 0.5\nentropy = 0.954\nsamples = 24\nvalue = [15, 9, 0]"] ;
91 -> 92 ;
93 [label="X[5] <= 9.84\nentropy = 0.902\nsamples = 22\nvalue = [15, 7, 0]"] ;
92 -> 93 ;
94 [label="X[5] <= 8.767\nentropy = 0.863\nsamples = 21\nvalue = [15, 6, 0]"] ;
93 -> 94 ;
95 [label="X[5] <= 8.673\nentropy = 0.937\nsamples = 17\nvalue = [11, 6, 0]"] ;
94 -> 95 ;
96 [label="X[0] <= 27.5\nentropy = 0.896\nsamples = 16\nvalue = [11, 5, 0]"] ;
95 -> 96 ;
97 [label="X[0] <= 25.5\nentropy = 0.994\nsamples = 11\nvalue = [6, 5, 0]"] ;
96 -> 97 ;
98 [label="X[0] <= 22.5\nentropy = 0.811\nsamples = 8\nvalue = [6, 2, 0]"] ;
97 -> 98 ;
99 [label="X[0] <= 18.5\nentropy = 0.971\nsamples = 5\nvalue = [3, 2, 0]"] ;
98 -> 99 ;
100 [label="entropy = 0.0\nsamples = 2\nvalue = [2, 0, 0]"] ;
99 -> 100 ;
101 [label="X[5] <= 8.258\nentropy = 0.918\nsamples = 3\nvalue = [1, 2, 0]"] ;
99 -> 101 ;
102 [label="entropy = 0.0\nsamples = 2\nvalue = [0, 2, 0]"] ;
101 -> 102 ;
103 [label="entropy = 0.0\nsamples = 1\nvalue = [1, 0, 0]"] ;
101 -> 103 ;
104 [label="entropy = 0.0\nsamples = 3\nvalue = [3, 0, 0]"] ;
98 -> 104 ;
105 [label="entropy = 0.0\nsamples = 3\nvalue = [0, 3, 0]"] ;
97 -> 105 ;
106 [label="entropy = 0.0\nsamples = 5\nvalue = [5, 0, 0]"] ;
96 -> 106 ;
107 [label="entropy = 0.0\nsamples = 1\nvalue = [0, 1, 0]"] ;
95 -> 107 ;
108 [label="entropy = 0.0\nsamples = 4\nvalue = [4, 0, 0]"] ;
94 -> 108 ;
109 [label="entropy = 0.0\nsamples = 1\nvalue = [0, 1, 0]"] ;
93 -> 109 ;
110 [label="entropy = 0.0\nsamples = 2\nvalue = [0, 2, 0]"] ;
92 -> 110 ;
111 [label="entropy = 0.0\nsamples = 3\nvalue = [3, 0, 0]"] ;
91 -> 111 ;
112 [label="X[5] <= 17.25\nentropy = 0.959\nsamples = 21\nvalue = [8, 13, 0]"] ;
90 -> 112 ;
113 [label="X[11] <= 0.5\nentropy = 0.619\nsamples = 13\nvalue = [2, 11, 0]"] ;
112 -> 113 ;
114 [label="entropy = 0.0\nsamples = 6\nvalue = [0, 6, 0]"] ;
113 -> 114 ;
115 [label="X[0] <= 25.0\nentropy = 0.863\nsamples = 7\nvalue = [2, 5, 0]"] ;
113 -> 115 ;
116 [label="entropy = 0.0\nsamples = 3\nvalue = [0, 3, 0]"] ;
115 -> 116 ;
117 [label="X[0] <= 28.85\nentropy = 1.0\nsamples = 4\nvalue = [2, 2, 0]"] ;
115 -> 117 ;
118 [label="entropy = 0.0\nsamples = 2\nvalue = [2, 0, 0]"] ;
117 -> 118 ;
119 [label="entropy = 0.0\nsamples = 2\nvalue = [0, 2, 0]"] ;
117 -> 119 ;
120 [label="X[5] <= 21.55\nentropy = 0.811\nsamples = 8\nvalue = [6, 2, 0]"] ;
112 -> 120 ;
121 [label="X[0] <= 30.0\nentropy = 0.592\nsamples = 7\nvalue = [6, 1, 0]"] ;
120 -> 121 ;
122 [label="entropy = 0.0\nsamples = 5\nvalue = [5, 0, 0]"] ;
121 -> 122 ;
123 [label="X[6] <= 0.5\nentropy = 1.0\nsamples = 2\nvalue = [1, 1, 0]"] ;
121 -> 123 ;
124 [label="entropy = 0.0\nsamples = 1\nvalue = [1, 0, 0]"] ;
123 -> 124 ;
125 [label="entropy = 0.0\nsamples = 1\nvalue = [0, 1, 0]"] ;
123 -> 125 ;
126 [label="entropy = 0.0\nsamples = 1\nvalue = [0, 1, 0]"] ;
120 -> 126 ;
127 [label="entropy = 0.0\nsamples = 3\nvalue = [0, 3, 0]"] ;
85 -> 127 ;
128 [label="X[0] <= 55.0\nentropy = 0.592\nsamples = 7\nvalue = [6, 1, 0]"] ;
42 -> 128 ;
129 [label="entropy = 0.0\nsamples = 6\nvalue = [6, 0, 0]"] ;
128 -> 129 ;
130 [label="entropy = 0.0\nsamples = 1\nvalue = [0, 1, 0]"] ;
128 -> 130 ;
131 [label="X[6] <= 0.5\nentropy = 0.503\nsamples = 27\nvalue = [24, 3, 0]"] ;
41 -> 131 ;
132 [label="entropy = 0.0\nsamples = 1\nvalue = [0, 1, 0]"] ;
131 -> 132 ;
133 [label="X[5] <= 31.331\nentropy = 0.391\nsamples = 26\nvalue = [24, 2, 0]"] ;
131 -> 133 ;
134 [label="entropy = 0.0\nsamples = 15\nvalue = [15, 0, 0]"] ;
133 -> 134 ;
135 [label="X[5] <= 32.881\nentropy = 0.684\nsamples = 11\nvalue = [9, 2, 0]"] ;
133 -> 135 ;
136 [label="entropy = 0.0\nsamples = 2\nvalue = [0, 2, 0]"] ;
135 -> 136 ;
137 [label="entropy = 0.0\nsamples = 9\nvalue = [9, 0, 0]"] ;
135 -> 137 ;
138 [label="X[7] <= 1.5\nentropy = 0.706\nsamples = 562\nvalue = [454, 108, 0]"] ;
0 -> 138 [labeldistance=2.5, labelangle=-45, headlabel="False"] ;
139 [label="X[0] <= 53.0\nentropy = 0.961\nsamples = 117\nvalue = [72, 45, 0]"] ;
138 -> 139 ;
140 [label="X[0] <= 17.5\nentropy = 0.99\nsamples = 95\nvalue = [53, 42, 0]"] ;
139 -> 140 ;
141 [label="entropy = 0.0\nsamples = 4\nvalue = [0, 4, 0]"] ;
140 -> 141 ;
142 [label="X[0] <= 22.5\nentropy = 0.98\nsamples = 91\nvalue = [53, 38, 0]"] ;
140 -> 142 ;
143 [label="entropy = 0.0\nsamples = 5\nvalue = [5, 0, 0]"] ;
142 -> 143 ;
144 [label="X[5] <= 26.144\nentropy = 0.99\nsamples = 86\nvalue = [48, 38, 0]"] ;
142 -> 144 ;
145 [label="entropy = 0.0\nsamples = 4\nvalue = [4, 0, 0]"] ;
144 -> 145 ;
146 [label="X[5] <= 27.135\nentropy = 0.996\nsamples = 82\nvalue = [44, 38, 0]"] ;
144 -> 146 ;
147 [label="X[5] <= 26.469\nentropy = 0.619\nsamples = 13\nvalue = [2, 11, 0]"] ;
146 -> 147 ;
148 [label="entropy = 0.0\nsamples = 4\nvalue = [0, 4, 0]"] ;
147 -> 148 ;
149 [label="X[0] <= 46.5\nentropy = 0.764\nsamples = 9\nvalue = [2, 7, 0]"] ;
147 -> 149 ;
150 [label="X[4] <= 0.5\nentropy = 0.863\nsamples = 7\nvalue = [2, 5, 0]"] ;
149 -> 150 ;
151 [label="entropy = 0.0\nsamples = 1\nvalue = [0, 1, 0]"] ;
150 -> 151 ;
152 [label="X[0] <= 28.85\nentropy = 0.918\nsamples = 6\nvalue = [2, 4, 0]"] ;
150 -> 152 ;
153 [label="entropy = 0.0\nsamples = 1\nvalue = [0, 1, 0]"] ;
152 -> 153 ;
154 [label="X[0] <= 31.85\nentropy = 0.971\nsamples = 5\nvalue = [2, 3, 0]"] ;
152 -> 154 ;
155 [label="entropy = 1.0\nsamples = 2\nvalue = [1, 1, 0]"] ;
154 -> 155 ;
156 [label="X[0] <= 39.5\nentropy = 0.918\nsamples = 3\nvalue = [1, 2, 0]"] ;
154 -> 156 ;
157 [label="entropy = 0.0\nsamples = 1\nvalue = [0, 1, 0]"] ;
156 -> 157 ;
158 [label="entropy = 1.0\nsamples = 2\nvalue = [1, 1, 0]"] ;
156 -> 158 ;
159 [label="entropy = 0.0\nsamples = 2\nvalue = [0, 2, 0]"] ;
149 -> 159 ;
160 [label="X[5] <= 29.1\nentropy = 0.966\nsamples = 69\nvalue = [42, 27, 0]"] ;
146 -> 160 ;
161 [label="entropy = 0.0\nsamples = 5\nvalue = [5, 0, 0]"] ;
160 -> 161 ;
162 [label="X[5] <= 30.598\nentropy = 0.982\nsamples = 64\nvalue = [37, 27, 0]"] ;
160 -> 162 ;
163 [label="X[6] <= 0.5\nentropy = 0.764\nsamples = 9\nvalue = [2, 7, 0]"] ;
162 -> 163 ;
164 [label="X[0] <= 29.35\nentropy = 0.544\nsamples = 8\nvalue = [1, 7, 0]"] ;
163 -> 164 ;
165 [label="X[0] <= 28.0\nentropy = 0.918\nsamples = 3\nvalue = [1, 2, 0]"] ;
164 -> 165 ;
166 [label="entropy = 0.0\nsamples = 2\nvalue = [0, 2, 0]"] ;
165 -> 166 ;
167 [label="entropy = 0.0\nsamples = 1\nvalue = [1, 0, 0]"] ;
165 -> 167 ;
168 [label="entropy = 0.0\nsamples = 5\nvalue = [0, 5, 0]"] ;
164 -> 168 ;
169 [label="entropy = 0.0\nsamples = 1\nvalue = [1, 0, 0]"] ;
163 -> 169 ;
170 [label="X[5] <= 379.925\nentropy = 0.946\nsamples = 55\nvalue = [35, 20, 0]"] ;
162 -> 170 ;
171 [label="X[11] <= 0.5\nentropy = 0.924\nsamples = 53\nvalue = [35, 18, 0]"] ;
170 -> 171 ;
172 [label="X[0] <= 23.5\nentropy = 0.691\nsamples = 27\nvalue = [22, 5, 0]"] ;
171 -> 172 ;
173 [label="entropy = 0.0\nsamples = 1\nvalue = [0, 1, 0]"] ;
172 -> 173 ;
174 [label="X[5] <= 37.0\nentropy = 0.619\nsamples = 26\nvalue = [22, 4, 0]"] ;
172 -> 174 ;
175 [label="X[0] <= 42.5\nentropy = 0.954\nsamples = 8\nvalue = [5, 3, 0]"] ;
174 -> 175 ;
176 [label="X[5] <= 35.25\nentropy = 1.0\nsamples = 6\nvalue = [3, 3, 0]"] ;
175 -> 176 ;
177 [label="X[0] <= 34.85\nentropy = 0.811\nsamples = 4\nvalue = [3, 1, 0]"] ;
176 -> 177 ;
178 [label="entropy = 0.0\nsamples = 3\nvalue = [3, 0, 0]"] ;
177 -> 178 ;
179 [label="entropy = 0.0\nsamples = 1\nvalue = [0, 1, 0]"] ;
177 -> 179 ;
180 [label="entropy = 0.0\nsamples = 2\nvalue = [0, 2, 0]"] ;
176 -> 180 ;
181 [label="entropy = 0.0\nsamples = 2\nvalue = [2, 0, 0]"] ;
175 -> 181 ;
182 [label="X[0] <= 27.5\nentropy = 0.31\nsamples = 18\nvalue = [17, 1, 0]"] ;
174 -> 182 ;
183 [label="X[5] <= 77.965\nentropy = 0.811\nsamples = 4\nvalue = [3, 1, 0]"] ;
182 -> 183 ;
184 [label="entropy = 0.0\nsamples = 1\nvalue = [0, 1, 0]"] ;
183 -> 184 ;
185 [label="entropy = 0.0\nsamples = 3\nvalue = [3, 0, 0]"] ;
183 -> 185 ;
186 [label="entropy = 0.0\nsamples = 14\nvalue = [14, 0, 0]"] ;
182 -> 186 ;
187 [label="X[0] <= 27.5\nentropy = 1.0\nsamples = 26\nvalue = [13, 13, 0]"] ;
171 -> 187 ;
188 [label="entropy = 0.0\nsamples = 3\nvalue = [0, 3, 0]"] ;
187 -> 188 ;
189 [label="X[5] <= 115.442\nentropy = 0.988\nsamples = 23\nvalue = [13, 10, 0]"] ;
187 -> 189 ;
190 [label="X[0] <= 49.5\nentropy = 0.959\nsamples = 21\nvalue = [13, 8, 0]"] ;
189 -> 190 ;
191 [label="X[0] <= 47.0\nentropy = 0.991\nsamples = 18\nvalue = [10, 8, 0]"] ;
190 -> 191 ;
192 [label="X[0] <= 43.0\nentropy = 0.89\nsamples = 13\nvalue = [9, 4, 0]"] ;
191 -> 192 ;
193 [label="X[5] <= 52.277\nentropy = 0.971\nsamples = 10\nvalue = [6, 4, 0]"] ;
192 -> 193 ;
194 [label="entropy = 0.0\nsamples = 2\nvalue = [2, 0, 0]"] ;
193 -> 194 ;
195 [label="X[5] <= 52.827\nentropy = 1.0\nsamples = 8\nvalue = [4, 4, 0]"] ;
193 -> 195 ;
196 [label="entropy = 0.0\nsamples = 2\nvalue = [0, 2, 0]"] ;
195 -> 196 ;
197 [label="X[5] <= 86.085\nentropy = 0.918\nsamples = 6\nvalue = [4, 2, 0]"] ;
195 -> 197 ;
198 [label="X[5] <= 61.8\nentropy = 0.722\nsamples = 5\nvalue = [4, 1, 0]"] ;
197 -> 198 ;
199 [label="X[0] <= 34.0\nentropy = 1.0\nsamples = 2\nvalue = [1, 1, 0]"] ;
198 -> 199 ;
200 [label="entropy = 0.0\nsamples = 1\nvalue = [0, 1, 0]"] ;
199 -> 200 ;
201 [label="entropy = 0.0\nsamples = 1\nvalue = [1, 0, 0]"] ;
199 -> 201 ;
202 [label="entropy = 0.0\nsamples = 3\nvalue = [3, 0, 0]"] ;
198 -> 202 ;
203 [label="entropy = 0.0\nsamples = 1\nvalue = [0, 1, 0]"] ;
197 -> 203 ;
204 [label="entropy = 0.0\nsamples = 3\nvalue = [3, 0, 0]"] ;
192 -> 204 ;
205 [label="X[6] <= 0.5\nentropy = 0.722\nsamples = 5\nvalue = [1, 4, 0]"] ;
191 -> 205 ;
206 [label="entropy = 0.0\nsamples = 4\nvalue = [0, 4, 0]"] ;
205 -> 206 ;
207 [label="entropy = 0.0\nsamples = 1\nvalue = [1, 0, 0]"] ;
205 -> 207 ;
208 [label="entropy = 0.0\nsamples = 3\nvalue = [3, 0, 0]"] ;
190 -> 208 ;
209 [label="entropy = 0.0\nsamples = 2\nvalue = [0, 2, 0]"] ;
189 -> 209 ;
210 [label="entropy = 0.0\nsamples = 2\nvalue = [0, 2, 0]"] ;
170 -> 210 ;
211 [label="X[0] <= 75.5\nentropy = 0.575\nsamples = 22\nvalue = [19, 3, 0]"] ;
139 -> 211 ;
212 [label="X[2] <= 0.5\nentropy = 0.454\nsamples = 21\nvalue = [19, 2, 0]"] ;
211 -> 212 ;
213 [label="entropy = 0.0\nsamples = 13\nvalue = [13, 0, 0]"] ;
212 -> 213 ;
214 [label="X[11] <= 0.5\nentropy = 0.811\nsamples = 8\nvalue = [6, 2, 0]"] ;
212 -> 214 ;
215 [label="X[0] <= 57.0\nentropy = 0.592\nsamples = 7\nvalue = [6, 1, 0]"] ;
214 -> 215 ;
216 [label="X[5] <= 33.098\nentropy = 1.0\nsamples = 2\nvalue = [1, 1, 0]"] ;
215 -> 216 ;
217 [label="entropy = 0.0\nsamples = 1\nvalue = [1, 0, 0]"] ;
216 -> 217 ;
218 [label="entropy = 0.0\nsamples = 1\nvalue = [0, 1, 0]"] ;
216 -> 218 ;
219 [label="entropy = 0.0\nsamples = 5\nvalue = [5, 0, 0]"] ;
215 -> 219 ;
220 [label="entropy = 0.0\nsamples = 1\nvalue = [0, 1, 0]"] ;
214 -> 220 ;
221 [label="entropy = 0.0\nsamples = 1\nvalue = [0, 1, 0]"] ;
211 -> 221 ;
222 [label="X[0] <= 9.5\nentropy = 0.588\nsamples = 445\nvalue = [382, 63, 0]"] ;
138 -> 222 ;
223 [label="X[11] <= 2.5\nentropy = 0.987\nsamples = 30\nvalue = [13, 17, 0]"] ;
222 -> 223 ;
224 [label="entropy = 0.0\nsamples = 16\nvalue = [0, 16, 0]"] ;
223 -> 224 ;
225 [label="X[6] <= 1.5\nentropy = 0.371\nsamples = 14\nvalue = [13, 1, 0]"] ;
223 -> 225 ;
226 [label="entropy = 0.0\nsamples = 8\nvalue = [8, 0, 0]"] ;
225 -> 226 ;
227 [label="X[0] <= 3.5\nentropy = 0.65\nsamples = 6\nvalue = [5, 1, 0]"] ;
225 -> 227 ;
228 [label="X[5] <= 39.144\nentropy = 1.0\nsamples = 2\nvalue = [1, 1, 0]"] ;
227 -> 228 ;
229 [label="entropy = 0.0\nsamples = 1\nvalue = [0, 1, 0]"] ;
228 -> 229 ;
230 [label="entropy = 0.0\nsamples = 1\nvalue = [1, 0, 0]"] ;
228 -> 230 ;
231 [label="entropy = 0.0\nsamples = 4\nvalue = [4, 0, 0]"] ;
227 -> 231 ;
232 [label="X[5] <= 51.698\nentropy = 0.502\nsamples = 415\nvalue = [369, 46, 0]"] ;
222 -> 232 ;
233 [label="X[2] <= 0.5\nentropy = 0.478\nsamples = 399\nvalue = [358, 41, 0]"] ;
232 -> 233 ;
234 [label="X[6] <= 0.5\nentropy = 0.433\nsamples = 348\nvalue = [317, 31, 0]"] ;
233 -> 234 ;
235 [label="X[5] <= 7.746\nentropy = 0.46\nsamples = 319\nvalue = [288, 31, 0]"] ;
234 -> 235 ;
236 [label="X[0] <= 28.0\nentropy = 0.239\nsamples = 51\nvalue = [49, 2, 0]"] ;
235 -> 236 ;
237 [label="X[0] <= 26.0\nentropy = 0.426\nsamples = 23\nvalue = [21, 2, 0]"] ;
236 -> 237 ;
238 [label="X[0] <= 23.0\nentropy = 0.267\nsamples = 22\nvalue = [21, 1, 0]"] ;
237 -> 238 ;
239 [label="entropy = 0.0\nsamples = 14\nvalue = [14, 0, 0]"] ;
238 -> 239 ;
240 [label="X[0] <= 24.5\nentropy = 0.544\nsamples = 8\nvalue = [7, 1, 0]"] ;
238 -> 240 ;
241 [label="X[5] <= 7.096\nentropy = 0.918\nsamples = 3\nvalue = [2, 1, 0]"] ;
240 -> 241 ;
242 [label="entropy = 0.0\nsamples = 1\nvalue = [1, 0, 0]"] ;
241 -> 242 ;
243 [label="X[5] <= 7.319\nentropy = 1.0\nsamples = 2\nvalue = [1, 1, 0]"] ;
241 -> 243 ;
244 [label="entropy = 0.0\nsamples = 1\nvalue = [0, 1, 0]"] ;
243 -> 244 ;
245 [label="entropy = 0.0\nsamples = 1\nvalue = [1, 0, 0]"] ;
243 -> 245 ;
246 [label="entropy = 0.0\nsamples = 5\nvalue = [5, 0, 0]"] ;
240 -> 246 ;
247 [label="entropy = 0.0\nsamples = 1\nvalue = [0, 1, 0]"] ;
237 -> 247 ;
248 [label="entropy = 0.0\nsamples = 28\nvalue = [28, 0, 0]"] ;
236 -> 248 ;
249 [label="X[5] <= 13.25\nentropy = 0.494\nsamples = 268\nvalue = [239, 29, 0]"] ;
235 -> 249 ;
250 [label="X[0] <= 30.75\nentropy = 0.536\nsamples = 221\nvalue = [194, 27, 0]"] ;
249 -> 250 ;
251 [label="X[5] <= 7.798\nentropy = 0.475\nsamples = 157\nvalue = [141, 16, 0]"] ;
250 -> 251 ;
252 [label="X[0] <= 20.0\nentropy = 0.736\nsamples = 29\nvalue = [23, 6, 0]"] ;
251 -> 252 ;
253 [label="entropy = 0.0\nsamples = 5\nvalue = [5, 0, 0]"] ;
252 -> 253 ;
254 [label="X[0] <= 29.35\nentropy = 0.811\nsamples = 24\nvalue = [18, 6, 0]"] ;
252 -> 254 ;
255 [label="X[4] <= 0.5\nentropy = 0.946\nsamples = 11\nvalue = [7, 4, 0]"] ;
254 -> 255 ;
256 [label="entropy = 0.0\nsamples = 1\nvalue = [0, 1, 0]"] ;
255 -> 256 ;
257 [label="X[0] <= 27.5\nentropy = 0.881\nsamples = 10\nvalue = [7, 3, 0]"] ;
255 -> 257 ;
258 [label="X[0] <= 26.5\nentropy = 0.954\nsamples = 8\nvalue = [5, 3, 0]"] ;
257 -> 258 ;
259 [label="X[0] <= 25.5\nentropy = 0.863\nsamples = 7\nvalue = [5, 2, 0]"] ;
258 -> 259 ;
260 [label="X[0] <= 21.5\nentropy = 0.918\nsamples = 6\nvalue = [4, 2, 0]"] ;
259 -> 260 ;
261 [label="X[5] <= 7.785\nentropy = 1.0\nsamples = 2\nvalue = [1, 1, 0]"] ;
260 -> 261 ;
262 [label="entropy = 0.0\nsamples = 1\nvalue = [1, 0, 0]"] ;
261 -> 262 ;
263 [label="entropy = 0.0\nsamples = 1\nvalue = [0, 1, 0]"] ;
261 -> 263 ;
264 [label="X[5] <= 7.785\nentropy = 0.811\nsamples = 4\nvalue = [3, 1, 0]"] ;
260 -> 264 ;
265 [label="entropy = 1.0\nsamples = 2\nvalue = [1, 1, 0]"] ;
264 -> 265 ;
266 [label="entropy = 0.0\nsamples = 2\nvalue = [2, 0, 0]"] ;
264 -> 266 ;
267 [label="entropy = 0.0\nsamples = 1\nvalue = [1, 0, 0]"] ;
259 -> 267 ;
268 [label="entropy = 0.0\nsamples = 1\nvalue = [0, 1, 0]"] ;
258 -> 268 ;
269 [label="entropy = 0.0\nsamples = 2\nvalue = [2, 0, 0]"] ;
257 -> 269 ;
270 [label="X[5] <= 7.763\nentropy = 0.619\nsamples = 13\nvalue = [11, 2, 0]"] ;
254 -> 270 ;
271 [label="X[11] <= 0.5\nentropy = 0.439\nsamples = 11\nvalue = [10, 1, 0]"] ;
270 -> 271 ;
272 [label="entropy = 0.469\nsamples = 10\nvalue = [9, 1, 0]"] ;
271 -> 272 ;
273 [label="entropy = 0.0\nsamples = 1\nvalue = [1, 0, 0]"] ;
271 -> 273 ;
274 [label="entropy = 1.0\nsamples = 2\nvalue = [1, 1, 0]"] ;
270 -> 274 ;
275 [label="X[5] <= 7.91\nentropy = 0.396\nsamples = 128\nvalue = [118, 10, 0]"] ;
251 -> 275 ;
276 [label="entropy = 0.0\nsamples = 37\nvalue = [37, 0, 0]"] ;
275 -> 276 ;
277 [label="X[0] <= 20.5\nentropy = 0.5\nsamples = 91\nvalue = [81, 10, 0]"] ;
275 -> 277 ;
278 [label="X[5] <= 8.104\nentropy = 0.691\nsamples = 27\nvalue = [22, 5, 0]"] ;
277 -> 278 ;
279 [label="X[11] <= 0.5\nentropy = 1.0\nsamples = 8\nvalue = [4, 4, 0]"] ;
278 -> 279 ;
280 [label="X[0] <= 19.5\nentropy = 0.985\nsamples = 7\nvalue = [4, 3, 0]"] ;
279 -> 280 ;
281 [label="X[0] <= 17.0\nentropy = 0.971\nsamples = 5\nvalue = [2, 3, 0]"] ;
280 -> 281 ;
282 [label="entropy = 1.0\nsamples = 2\nvalue = [1, 1, 0]"] ;
281 -> 282 ;
283 [label="X[0] <= 18.5\nentropy = 0.918\nsamples = 3\nvalue = [1, 2, 0]"] ;
281 -> 283 ;
284 [label="entropy = 0.0\nsamples = 1\nvalue = [0, 1, 0]"] ;
283 -> 284 ;
285 [label="entropy = 1.0\nsamples = 2\nvalue = [1, 1, 0]"] ;
283 -> 285 ;
286 [label="entropy = 0.0\nsamples = 2\nvalue = [2, 0, 0]"] ;
280 -> 286 ;
287 [label="entropy = 0.0\nsamples = 1\nvalue = [0, 1, 0]"] ;
279 -> 287 ;
288 [label="X[7] <= 2.5\nentropy = 0.297\nsamples = 19\nvalue = [18, 1, 0]"] ;
278 -> 288 ;
289 [label="X[5] <= 11.0\nentropy = 0.592\nsamples = 7\nvalue = [6, 1, 0]"] ;
288 -> 289 ;
290 [label="X[0] <= 17.5\nentropy = 0.918\nsamples = 3\nvalue = [2, 1, 0]"] ;
289 -> 290 ;
291 [label="entropy = 0.0\nsamples = 1\nvalue = [1, 0, 0]"] ;
290 -> 291 ;
292 [label="entropy = 1.0\nsamples = 2\nvalue = [1, 1, 0]"] ;
290 -> 292 ;
293 [label="entropy = 0.0\nsamples = 4\nvalue = [4, 0, 0]"] ;
289 -> 293 ;
294 [label="entropy = 0.0\nsamples = 12\nvalue = [12, 0, 0]"] ;
288 -> 294 ;
295 [label="X[0] <= 26.5\nentropy = 0.396\nsamples = 64\nvalue = [59, 5, 0]"] ;
277 -> 295 ;
296 [label="entropy = 0.0\nsamples = 27\nvalue = [27, 0, 0]"] ;
295 -> 296 ;
297 [label="X[5] <= 8.081\nentropy = 0.571\nsamples = 37\nvalue = [32, 5, 0]"] ;
295 -> 297 ;
298 [label="entropy = 0.0\nsamples = 17\nvalue = [17, 0, 0]"] ;
297 -> 298 ;
299 [label="X[5] <= 8.285\nentropy = 0.811\nsamples = 20\nvalue = [15, 5, 0]"] ;
297 -> 299 ;
300 [label="entropy = 0.0\nsamples = 1\nvalue = [0, 1, 0]"] ;
299 -> 300 ;
301 [label="X[7] <= 2.5\nentropy = 0.742\nsamples = 19\nvalue = [15, 4, 0]"] ;
299 -> 301 ;
302 [label="X[0] <= 29.35\nentropy = 0.469\nsamples = 10\nvalue = [9, 1, 0]"] ;
301 -> 302 ;
303 [label="entropy = 0.0\nsamples = 5\nvalue = [5, 0, 0]"] ;
302 -> 303 ;
304 [label="X[0] <= 29.85\nentropy = 0.722\nsamples = 5\nvalue = [4, 1, 0]"] ;
302 -> 304 ;
305 [label="entropy = 0.0\nsamples = 1\nvalue = [0, 1, 0]"] ;
304 -> 305 ;
306 [label="entropy = 0.0\nsamples = 4\nvalue = [4, 0, 0]"] ;
304 -> 306 ;
307 [label="X[0] <= 27.5\nentropy = 0.918\nsamples = 9\nvalue = [6, 3, 0]"] ;
301 -> 307 ;
308 [label="entropy = 0.0\nsamples = 1\nvalue = [0, 1, 0]"] ;
307 -> 308 ;
309 [label="X[0] <= 29.85\nentropy = 0.811\nsamples = 8\nvalue = [6, 2, 0]"] ;
307 -> 309 ;
310 [label="X[5] <= 9.492\nentropy = 0.592\nsamples = 7\nvalue = [6, 1, 0]"] ;
309 -> 310 ;
311 [label="entropy = 0.0\nsamples = 3\nvalue = [3, 0, 0]"] ;
310 -> 311 ;
312 [label="X[0] <= 28.5\nentropy = 0.811\nsamples = 4\nvalue = [3, 1, 0]"] ;
310 -> 312 ;
313 [label="entropy = 0.0\nsamples = 2\nvalue = [2, 0, 0]"] ;
312 -> 313 ;
314 [label="X[0] <= 29.35\nentropy = 1.0\nsamples = 2\nvalue = [1, 1, 0]"] ;
312 -> 314 ;
315 [label="entropy = 0.0\nsamples = 1\nvalue = [0, 1, 0]"] ;
314 -> 315 ;
316 [label="entropy = 0.0\nsamples = 1\nvalue = [1, 0, 0]"] ;
314 -> 316 ;
317 [label="entropy = 0.0\nsamples = 1\nvalue = [0, 1, 0]"] ;
309 -> 317 ;
318 [label="X[0] <= 32.5\nentropy = 0.662\nsamples = 64\nvalue = [53, 11, 0]"] ;
250 -> 318 ;
319 [label="X[5] <= 7.815\nentropy = 0.94\nsamples = 14\nvalue = [9, 5, 0]"] ;
318 -> 319 ;
320 [label="entropy = 0.0\nsamples = 3\nvalue = [3, 0, 0]"] ;
319 -> 320 ;
321 [label="X[5] <= 7.875\nentropy = 0.994\nsamples = 11\nvalue = [6, 5, 0]"] ;
319 -> 321 ;
322 [label="entropy = 0.0\nsamples = 1\nvalue = [0, 1, 0]"] ;
321 -> 322 ;
323 [label="X[5] <= 11.75\nentropy = 0.971\nsamples = 10\nvalue = [6, 4, 0]"] ;
321 -> 323 ;
324 [label="X[5] <= 8.206\nentropy = 0.918\nsamples = 9\nvalue = [6, 3, 0]"] ;
323 -> 324 ;
325 [label="X[5] <= 7.91\nentropy = 1.0\nsamples = 6\nvalue = [3, 3, 0]"] ;
324 -> 325 ;
326 [label="entropy = 0.0\nsamples = 1\nvalue = [1, 0, 0]"] ;
325 -> 326 ;
327 [label="X[5] <= 7.988\nentropy = 0.971\nsamples = 5\nvalue = [2, 3, 0]"] ;
325 -> 327 ;
328 [label="X[0] <= 31.5\nentropy = 1.0\nsamples = 4\nvalue = [2, 2, 0]"] ;
327 -> 328 ;
329 [label="entropy = 0.0\nsamples = 1\nvalue = [0, 1, 0]"] ;
328 -> 329 ;
330 [label="entropy = 0.918\nsamples = 3\nvalue = [2, 1, 0]"] ;
328 -> 330 ;
331 [label="entropy = 0.0\nsamples = 1\nvalue = [0, 1, 0]"] ;
327 -> 331 ;
332 [label="entropy = 0.0\nsamples = 3\nvalue = [3, 0, 0]"] ;
324 -> 332 ;
333 [label="entropy = 0.0\nsamples = 1\nvalue = [0, 1, 0]"] ;
323 -> 333 ;
334 [label="X[5] <= 7.91\nentropy = 0.529\nsamples = 50\nvalue = [44, 6, 0]"] ;
318 -> 334 ;
335 [label="entropy = 0.0\nsamples = 11\nvalue = [11, 0, 0]"] ;
334 -> 335 ;
336 [label="X[5] <= 7.988\nentropy = 0.619\nsamples = 39\nvalue = [33, 6, 0]"] ;
334 -> 336 ;
337 [label="X[0] <= 38.0\nentropy = 1.0\nsamples = 4\nvalue = [2, 2, 0]"] ;
336 -> 337 ;
338 [label="entropy = 0.0\nsamples = 1\nvalue = [1, 0, 0]"] ;
337 -> 338 ;
339 [label="X[0] <= 41.5\nentropy = 0.918\nsamples = 3\nvalue = [1, 2, 0]"] ;
337 -> 339 ;
340 [label="entropy = 1.0\nsamples = 2\nvalue = [1, 1, 0]"] ;
339 -> 340 ;
341 [label="entropy = 0.0\nsamples = 1\nvalue = [0, 1, 0]"] ;
339 -> 341 ;
342 [label="X[0] <= 59.5\nentropy = 0.513\nsamples = 35\nvalue = [31, 4, 0]"] ;
336 -> 342 ;
343 [label="X[0] <= 46.0\nentropy = 0.449\nsamples = 32\nvalue = [29, 3, 0]"] ;
342 -> 343 ;
344 [label="X[0] <= 44.5\nentropy = 0.559\nsamples = 23\nvalue = [20, 3, 0]"] ;
343 -> 344 ;
345 [label="X[5] <= 12.637\nentropy = 0.439\nsamples = 22\nvalue = [20, 2, 0]"] ;
344 -> 345 ;
346 [label="entropy = 0.0\nsamples = 14\nvalue = [14, 0, 0]"] ;
345 -> 346 ;
347 [label="X[0] <= 40.5\nentropy = 0.811\nsamples = 8\nvalue = [6, 2, 0]"] ;
345 -> 347 ;
348 [label="X[0] <= 35.0\nentropy = 0.65\nsamples = 6\nvalue = [5, 1, 0]"] ;
347 -> 348 ;
349 [label="entropy = 0.918\nsamples = 3\nvalue = [2, 1, 0]"] ;
348 -> 349 ;
350 [label="entropy = 0.0\nsamples = 3\nvalue = [3, 0, 0]"] ;
348 -> 350 ;
351 [label="entropy = 1.0\nsamples = 2\nvalue = [1, 1, 0]"] ;
347 -> 351 ;
352 [label="entropy = 0.0\nsamples = 1\nvalue = [0, 1, 0]"] ;
344 -> 352 ;
353 [label="entropy = 0.0\nsamples = 9\nvalue = [9, 0, 0]"] ;
343 -> 353 ;
354 [label="X[0] <= 64.0\nentropy = 0.918\nsamples = 3\nvalue = [2, 1, 0]"] ;
342 -> 354 ;
355 [label="entropy = 0.0\nsamples = 1\nvalue = [0, 1, 0]"] ;
354 -> 355 ;
356 [label="entropy = 0.0\nsamples = 2\nvalue = [2, 0, 0]"] ;
354 -> 356 ;
357 [label="X[5] <= 22.887\nentropy = 0.254\nsamples = 47\nvalue = [45, 2, 0]"] ;
249 -> 357 ;
358 [label="entropy = 0.0\nsamples = 29\nvalue = [29, 0, 0]"] ;
357 -> 358 ;
359 [label="X[5] <= 23.7\nentropy = 0.503\nsamples = 18\nvalue = [16, 2, 0]"] ;
357 -> 359 ;
360 [label="entropy = 0.0\nsamples = 1\nvalue = [0, 1, 0]"] ;
359 -> 360 ;
361 [label="X[0] <= 33.0\nentropy = 0.323\nsamples = 17\nvalue = [16, 1, 0]"] ;
359 -> 361 ;
362 [label="X[0] <= 30.85\nentropy = 0.592\nsamples = 7\nvalue = [6, 1, 0]"] ;
361 -> 362 ;
363 [label="entropy = 0.0\nsamples = 6\nvalue = [6, 0, 0]"] ;
362 -> 363 ;
364 [label="entropy = 0.0\nsamples = 1\nvalue = [0, 1, 0]"] ;
362 -> 364 ;
365 [label="entropy = 0.0\nsamples = 10\nvalue = [10, 0, 0]"] ;
361 -> 365 ;
366 [label="entropy = 0.0\nsamples = 29\nvalue = [29, 0, 0]"] ;
234 -> 366 ;
367 [label="X[0] <= 29.85\nentropy = 0.714\nsamples = 51\nvalue = [41, 10, 0]"] ;
233 -> 367 ;
368 [label="X[5] <= 15.148\nentropy = 0.821\nsamples = 39\nvalue = [29, 10, 0]"] ;
367 -> 368 ;
369 [label="X[0] <= 13.5\nentropy = 0.709\nsamples = 31\nvalue = [25, 6, 0]"] ;
368 -> 369 ;
370 [label="entropy = 0.0\nsamples = 1\nvalue = [0, 1, 0]"] ;
369 -> 370 ;
371 [label="X[5] <= 14.158\nentropy = 0.65\nsamples = 30\nvalue = [25, 5, 0]"] ;
369 -> 371 ;
372 [label="X[7] <= 2.5\nentropy = 0.722\nsamples = 25\nvalue = [20, 5, 0]"] ;
371 -> 372 ;
373 [label="entropy = 0.0\nsamples = 1\nvalue = [0, 1, 0]"] ;
372 -> 373 ;
374 [label="X[0] <= 29.35\nentropy = 0.65\nsamples = 24\nvalue = [20, 4, 0]"] ;
372 -> 374 ;
375 [label="X[5] <= 7.562\nentropy = 0.881\nsamples = 10\nvalue = [7, 3, 0]"] ;
374 -> 375 ;
376 [label="X[0] <= 22.75\nentropy = 0.764\nsamples = 9\nvalue = [7, 2, 0]"] ;
375 -> 376 ;
377 [label="X[11] <= 0.5\nentropy = 0.918\nsamples = 6\nvalue = [4, 2, 0]"] ;
376 -> 377 ;
378 [label="X[5] <= 5.619\nentropy = 1.0\nsamples = 4\nvalue = [2, 2, 0]"] ;
377 -> 378 ;
379 [label="entropy = 0.0\nsamples = 1\nvalue = [1, 0, 0]"] ;
378 -> 379 ;
380 [label="X[5] <= 7.227\nentropy = 0.918\nsamples = 3\nvalue = [1, 2, 0]"] ;
378 -> 380 ;
381 [label="entropy = 0.0\nsamples = 1\nvalue = [0, 1, 0]"] ;
380 -> 381 ;
382 [label="X[0] <= 21.0\nentropy = 1.0\nsamples = 2\nvalue = [1, 1, 0]"] ;
380 -> 382 ;
383 [label="entropy = 0.0\nsamples = 1\nvalue = [0, 1, 0]"] ;
382 -> 383 ;
384 [label="entropy = 0.0\nsamples = 1\nvalue = [1, 0, 0]"] ;
382 -> 384 ;
385 [label="entropy = 0.0\nsamples = 2\nvalue = [2, 0, 0]"] ;
377 -> 385 ;
386 [label="entropy = 0.0\nsamples = 3\nvalue = [3, 0, 0]"] ;
376 -> 386 ;
387 [label="entropy = 0.0\nsamples = 1\nvalue = [0, 1, 0]"] ;
375 -> 387 ;
388 [label="X[5] <= 7.227\nentropy = 0.371\nsamples = 14\nvalue = [13, 1, 0]"] ;
374 -> 388 ;
389 [label="entropy = 0.0\nsamples = 5\nvalue = [5, 0, 0]"] ;
388 -> 389 ;
390 [label="X[5] <= 7.562\nentropy = 0.503\nsamples = 9\nvalue = [8, 1, 0]"] ;
388 -> 390 ;
391 [label="entropy = 0.65\nsamples = 6\nvalue = [5, 1, 0]"] ;
390 -> 391 ;
392 [label="entropy = 0.0\nsamples = 3\nvalue = [3, 0, 0]"] ;
390 -> 392 ;
393 [label="entropy = 0.0\nsamples = 5\nvalue = [5, 0, 0]"] ;
371 -> 393 ;
394 [label="X[5] <= 17.265\nentropy = 1.0\nsamples = 8\nvalue = [4, 4, 0]"] ;
368 -> 394 ;
395 [label="entropy = 0.0\nsamples = 3\nvalue = [0, 3, 0]"] ;
394 -> 395 ;
396 [label="X[5] <= 20.233\nentropy = 0.722\nsamples = 5\nvalue = [4, 1, 0]"] ;
394 -> 396 ;
397 [label="X[0] <= 18.5\nentropy = 1.0\nsamples = 2\nvalue = [1, 1, 0]"] ;
396 -> 397 ;
398 [label="entropy = 0.0\nsamples = 1\nvalue = [1, 0, 0]"] ;
397 -> 398 ;
399 [label="entropy = 0.0\nsamples = 1\nvalue = [0, 1, 0]"] ;
397 -> 399 ;
400 [label="entropy = 0.0\nsamples = 3\nvalue = [3, 0, 0]"] ;
396 -> 400 ;
401 [label="entropy = 0.0\nsamples = 12\nvalue = [12, 0, 0]"] ;
367 -> 401 ;
402 [label="X[5] <= 63.023\nentropy = 0.896\nsamples = 16\nvalue = [11, 5, 0]"] ;
232 -> 402 ;
403 [label="X[0] <= 30.85\nentropy = 0.863\nsamples = 7\nvalue = [2, 5, 0]"] ;
402 -> 403 ;
404 [label="X[0] <= 27.0\nentropy = 0.971\nsamples = 5\nvalue = [2, 3, 0]"] ;
403 -> 404 ;
405 [label="entropy = 0.0\nsamples = 1\nvalue = [0, 1, 0]"] ;
404 -> 405 ;
406 [label="X[0] <= 28.85\nentropy = 1.0\nsamples = 4\nvalue = [2, 2, 0]"] ;
404 -> 406 ;
407 [label="entropy = 0.0\nsamples = 1\nvalue = [1, 0, 0]"] ;
406 -> 407 ;
408 [label="entropy = 0.918\nsamples = 3\nvalue = [1, 2, 0]"] ;
406 -> 408 ;
409 [label="entropy = 0.0\nsamples = 2\nvalue = [0, 2, 0]"] ;
403 -> 409 ;
410 [label="entropy = 0.0\nsamples = 9\nvalue = [9, 0, 0]"] ;
402 -> 410 ;
}